digraph Tree {
node [shape=box, style="filled, rounded", color="black", fontname=helvetica] ;
edge [fontname=helvetica] ;
0 [label="OWID_share_global_cumulative_cement_co2 <= 0.905\ngini = 0.708\nsamples = 156\nvalue = [104, 57, 48, 38]", fillcolor="#f9e0ce"] ;
1 [label="CDP_Gas_SF6 <= -0.079\ngini = 0.454\nsamples = 101\nvalue = [104, 0, 48, 3]", fillcolor="#f1bd97"] ;
0 -> 1 [labeldistance=2.5, labelangle=45, headlabel="True"] ;
2 [label="OWID_oil_co2 <= -0.558\ngini = 0.23\nsamples = 40\nvalue = [4, 0, 48, 3]", fillcolor="#54aae9"] ;
1 -> 2 ;
3 [label="gini = 0.111\nsamples = 38\nvalue = [3, 0, 48, 0]", fillcolor="#45a3e7"] ;
2 -> 3 ;
4 [label="gini = 0.375\nsamples = 2\nvalue = [1, 0, 0, 3]", fillcolor="#e47bee"] ;
2 -> 4 ;
5 [label="gini = 0.0\nsamples = 61\nvalue = [100, 0, 0, 0]", fillcolor="#e58139"] ;
1 -> 5 ;
6 [label="OWID_flaring_co2 <= 1.11\ngini = 0.471\nsamples = 55\nvalue = [0, 57, 0, 35]", fillcolor="#b8f5b3"] ;
0 -> 6 [labeldistance=2.5, labelangle=-45, headlabel="False"] ;
7 [label="CDP_Gas_HFCs <= -0.439\ngini = 0.257\nsamples = 20\nvalue = [0, 5, 0, 28]", fillcolor="#de5cea"] ;
6 -> 7 ;
8 [label="gini = 0.0\nsamples = 16\nvalue = [0, 0, 0, 28]", fillcolor="#d739e5"] ;
7 -> 8 ;
9 [label="gini = 0.0\nsamples = 4\nvalue = [0, 5, 0, 0]", fillcolor="#47e539"] ;
7 -> 9 ;
10 [label="CDP_Gas_NF3 <= -0.204\ngini = 0.209\nsamples = 35\nvalue = [0, 52, 0, 7]", fillcolor="#60e854"] ;
6 -> 10 ;
11 [label="gini = 0.219\nsamples = 6\nvalue = [0, 1, 0, 7]", fillcolor="#dd55e9"] ;
10 -> 11 ;
12 [label="gini = 0.0\nsamples = 29\nvalue = [0, 51, 0, 0]", fillcolor="#47e539"] ;
10 -> 12 ;
}